{
  "v": "5.8.1",
  "fr": 30,
  "ip": 0,
  "op": 90,
  "w": 600,
  "h": 600,
  "nm": "Circle Loader_36",
  "assets": [],
  "layers": [
    {
      "ind": 1,
      "ty": 4,
      "nm": "Layer 2",
      "sr": 1,
      "ks": {
        "o": {
          "a": 0,
          "k": 100
        },
        "r": {
          "a": 1,
          "k": [
            {
              "i": {
                "x": [
                  0.667
                ],
                "y": [
                  1
                ]
              },
              "o": {
                "x": [
                  0.333
                ],
                "y": [
                  0
                ]
              },
              "t": 0,
              "s": [
                0
              ]
            },
            {
              "t": 89,
              "s": [
                -1080
              ]
            }
          ]
        },
        "p": {
          "a": 0,
          "k": [
            411.375,
            187.751,
            0
          ],
          "l": 2
        },
        "a": {
          "a": 0,
          "k": [
            411.375,
            187.751,
            0
          ],
          "l": 2
        },
        "s": {
          "a": 0,
          "k": [
            100,
            100,
            100
          ],
          "l": 2
        }
      },
      "ao": 0,
      "shapes": [
        {
          "ty": "gr",
          "it": [
            {
              "ind": 0,
              "ty": "sh",
              "ks": {
                "a": 0,
                "k": {
                  "i": [
                    [
                      40.368,
                      -3.76
                    ],
                    [
                      3.76,
                      40.368
                    ],
                    [
                      -40.368,
                      3.76
                    ],
                    [
                      -3.76,
                      -40.368
                    ]
                  ],
                  "o": [
                    [
                      24.68,
                      32.164
                    ],
                    [
                      -32.164,
                      24.68
                    ],
                    [
                      -24.68,
                      -32.164
                    ],
                    [
                      32.164,
                      -24.68
                    ]
                  ],
                  "v": [
                    [
                      32.524,
                      14.202
                    ],
                    [
                      -14.202,
                      32.524
                    ],
                    [
                      -32.524,
                      -14.202
                    ],
                    [
                      14.202,
                      -32.524
                    ]
                  ],
                  "c": true
                }
              },
              "nm": "Path 1",
              "_render": true
            },
            {
              "ty": "st",
              "c": {
                "a": 0,
                "k": [
                  1,
                  0.8431372549019608,
                  0,
                  1
                ]
              },
              "o": {
                "a": 0,
                "k": 100
              },
              "w": {
                "a": 0,
                "k": 12
              },
              "lc": 1,
              "lj": 1,
              "ml": 10,
              "nm": "Stroke 1",
              "_render": true
            },
            {
              "ty": "tr",
              "p": {
                "a": 0,
                "k": [
                  411.374,
                  187.747
                ]
              },
              "a": {
                "a": 0,
                "k": [
                  0,
                  0
                ]
              },
              "s": {
                "a": 0,
                "k": [
                  100,
                  100
                ]
              },
              "r": {
                "a": 0,
                "k": 0
              },
              "o": {
                "a": 0,
                "k": 100
              },
              "sk": {
                "a": 0,
                "k": 0
              },
              "sa": {
                "a": 0,
                "k": 0
              },
              "nm": "Transform",
              "_render": true
            }
          ],
          "nm": "Group 1",
          "_render": true
        },
        {
          "ty": "gr",
          "it": [
            {
              "ind": 0,
              "ty": "sh",
              "ks": {
                "a": 0,
                "k": {
                  "i": [
                    [
                      96.346,
                      34.823
                    ],
                    [
                      90.183,
                      46.056000000000004
                    ],
                    [
                      81.33699999999999,
                      48.297000000000004
                    ],
                    [
                      62.181,
                      39.932
                    ],
                    [
                      59.348,
                      39.803
                    ],
                    [
                      46.374,
                      55.16
                    ],
                    [
                      37.034,
                      62.372
                    ],
                    [
                      43.99,
                      80.103
                    ],
                    [
                      43.382999999999996,
                      92.923
                    ],
                    [
                      31.144,
                      96.313
                    ],
                    [
                      23.361,
                      91.666
                    ],
                    [
                      15.759,
                      72.28
                    ],
                    [
                      13.857,
                      70.187
                    ],
                    [
                      -5.894,
                      71.947
                    ],
                    [
                      -17.941,
                      70.347
                    ],
                    [
                      -25.537,
                      87.744
                    ],
                    [
                      -35.031000000000006,
                      96.37899999999999
                    ],
                    [
                      -46.086,
                      90.125
                    ],
                    [
                      -48.301,
                      81.335
                    ],
                    [
                      -39.981,
                      62.28
                    ],
                    [
                      -39.851,
                      59.451
                    ],
                    [
                      -55.208,
                      46.423
                    ],
                    [
                      -62.409,
                      37.053000000000004
                    ],
                    [
                      -79.856,
                      43.893
                    ],
                    [
                      -92.773,
                      43.492
                    ],
                    [
                      -96.335,
                      31.195999999999998
                    ],
                    [
                      -91.666,
                      23.36
                    ],
                    [
                      -72.248,
                      15.746
                    ],
                    [
                      -70.15700000000001,
                      13.850999999999999
                    ],
                    [
                      -71.862,
                      -5.866
                    ],
                    [
                      -70.249,
                      -17.898
                    ],
                    [
                      -87.506,
                      -25.434
                    ],
                    [
                      -96.362,
                      -34.873000000000005
                    ],
                    [
                      -90.172,
                      -46.064
                    ],
                    [
                      -81.33500000000001,
                      -48.301
                    ],
                    [
                      -62.134,
                      -39.917
                    ],
                    [
                      -59.309,
                      -39.785
                    ],
                    [
                      -46.321,
                      -55.05
                    ],
                    [
                      -36.980999999999995,
                      -62.227
                    ],
                    [
                      -43.99,
                      -80.103
                    ],
                    [
                      -43.382999999999996,
                      -92.923
                    ],
                    [
                      -31.144,
                      -96.313
                    ],
                    [
                      -23.36,
                      -91.666
                    ],
                    [
                      -15.677,
                      -72.071
                    ],
                    [
                      -13.780999999999999,
                      -69.98
                    ],
                    [
                      5.841000000000001,
                      -71.684
                    ],
                    [
                      17.826999999999998,
                      -70.09899999999999
                    ],
                    [
                      25.429,
                      -87.508
                    ],
                    [
                      34.825,
                      -96.35000000000001
                    ],
                    [
                      46.057,
                      -90.187
                    ],
                    [
                      48.299,
                      -81.341
                    ],
                    [
                      39.867,
                      -62.032
                    ],
                    [
                      39.736999999999995,
                      -59.202
                    ],
                    [
                      55.005,
                      -46.27
                    ],
                    [
                      62.19,
                      -36.966
                    ],
                    [
                      79.856,
                      -43.893
                    ],
                    [
                      92.773,
                      -43.492
                    ],
                    [
                      96.335,
                      -31.195999999999998
                    ],
                    [
                      91.666,
                      -23.361
                    ],
                    [
                      72.103,
                      -15.69
                    ],
                    [
                      70.01,
                      -13.788
                    ],
                    [
                      71.768,
                      5.872
                    ],
                    [
                      70.20100000000001,
                      17.871
                    ],
                    [
                      87.503,
                      25.427
                    ]
                  ],
                  "o": [
                    [
                      92.6,
                      43.827
                    ],
                    [
                      84.544,
                      48.271
                    ],
                    [
                      78.371,
                      47.002
                    ],
                    [
                      60.870999999999995,
                      39.36
                    ],
                    [
                      53.144,
                      48.721
                    ],
                    [
                      37.522,
                      60.871
                    ],
                    [
                      37.553,
                      63.694
                    ],
                    [
                      46.351,
                      86.125
                    ],
                    [
                      34.349999999999994,
                      96.465
                    ],
                    [
                      25.65,
                      93.913
                    ],
                    [
                      22.18,
                      88.655
                    ],
                    [
                      15.239,
                      70.955
                    ],
                    [
                      3.4689999999999994,
                      72.047
                    ],
                    [
                      -16.525000000000002,
                      69.637
                    ],
                    [
                      -18.512,
                      71.655
                    ],
                    [
                      -28.127,
                      93.676
                    ],
                    [
                      -43.92100000000001,
                      92.49799999999999
                    ],
                    [
                      -48.269999999999996,
                      84.54299999999999
                    ],
                    [
                      -47.006,
                      78.369
                    ],
                    [
                      -39.410000000000004,
                      60.972
                    ],
                    [
                      -48.771,
                      53.223
                    ],
                    [
                      -60.907,
                      37.543
                    ],
                    [
                      -63.734,
                      37.572
                    ],
                    [
                      -85.853,
                      46.245
                    ],
                    [
                      -96.47,
                      34.471
                    ],
                    [
                      -93.913,
                      25.65
                    ],
                    [
                      -88.655,
                      22.179
                    ],
                    [
                      -70.926,
                      15.228
                    ],
                    [
                      -71.98400000000001,
                      3.475999999999999
                    ],
                    [
                      -69.538,
                      -16.479
                    ],
                    [
                      -71.559,
                      -18.47
                    ],
                    [
                      -93.419,
                      -28.016000000000002
                    ],
                    [
                      -92.57499999999999,
                      -43.859
                    ],
                    [
                      -84.548,
                      -48.272000000000006
                    ],
                    [
                      -78.373,
                      -47.008
                    ],
                    [
                      -60.828,
                      -39.347
                    ],
                    [
                      -53.093,
                      -48.650999999999996
                    ],
                    [
                      -37.473,
                      -60.723
                    ],
                    [
                      -37.501,
                      -63.552
                    ],
                    [
                      -46.349000000000004,
                      -86.13
                    ],
                    [
                      -34.349999999999994,
                      -96.465
                    ],
                    [
                      -25.65,
                      -93.913
                    ],
                    [
                      -22.179,
                      -88.655
                    ],
                    [
                      -15.158999999999999,
                      -70.749
                    ],
                    [
                      -3.4529999999999994,
                      -71.798
                    ],
                    [
                      16.41,
                      -69.388
                    ],
                    [
                      18.398,
                      -71.407
                    ],
                    [
                      28.003,
                      -93.40299999999999
                    ],
                    [
                      43.829,
                      -92.604
                    ],
                    [
                      48.265,
                      -84.54599999999999
                    ],
                    [
                      47.004,
                      -78.375
                    ],
                    [
                      39.296,
                      -60.724
                    ],
                    [
                      48.605,
                      -53.010999999999996
                    ],
                    [
                      60.690000000000005,
                      -37.455
                    ],
                    [
                      63.513,
                      -37.485
                    ],
                    [
                      85.854,
                      -46.245
                    ],
                    [
                      96.47,
                      -34.471
                    ],
                    [
                      93.913,
                      -25.65
                    ],
                    [
                      88.655,
                      -22.18
                    ],
                    [
                      70.77799999999999,
                      -15.17
                    ],
                    [
                      71.85900000000001,
                      -3.4429999999999996
                    ],
                    [
                      69.49000000000001,
                      16.458
                    ],
                    [
                      71.507,
                      18.441
                    ],
                    [
                      93.397,
                      28.000999999999998
                    ]
                  ],
                  "v": [
                    [
                      93.875,
                      40.762
                    ],
                    [
                      87.334,
                      47.173
                    ],
                    [
                      78.371,
                      47.002
                    ],
                    [
                      62.181,
                      39.932
                    ],
                    [
                      58.532,
                      40.976
                    ],
                    [
                      38.716,
                      60.101
                    ],
                    [
                      37.553,
                      63.694
                    ],
                    [
                      43.99,
                      80.103
                    ],
                    [
                      37.361,
                      95.284
                    ],
                    [
                      28.397,
                      95.113
                    ],
                    [
                      22.18,
                      88.655
                    ],
                    [
                      15.759,
                      72.28
                    ],
                    [
                      12.456,
                      70.438
                    ],
                    [
                      -15.13,
                      69.94
                    ],
                    [
                      -18.512,
                      71.655
                    ],
                    [
                      -25.537,
                      87.744
                    ],
                    [
                      -40.959,
                      93.791
                    ],
                    [
                      -47.177,
                      87.332
                    ],
                    [
                      -47.006,
                      78.369
                    ],
                    [
                      -39.981,
                      62.28
                    ],
                    [
                      -41.021,
                      58.634
                    ],
                    [
                      -60.138,
                      38.741
                    ],
                    [
                      -63.734,
                      37.572
                    ],
                    [
                      -79.856,
                      43.893
                    ],
                    [
                      -95.216,
                      37.531
                    ],
                    [
                      -95.113,
                      28.397
                    ],
                    [
                      -88.655,
                      22.179
                    ],
                    [
                      -72.248,
                      15.746
                    ],
                    [
                      -70.403,
                      12.452
                    ],
                    [
                      -69.844,
                      -15.083
                    ],
                    [
                      -71.559,
                      -18.47
                    ],
                    [
                      -87.506,
                      -25.434
                    ],
                    [
                      -93.856,
                      -40.819
                    ],
                    [
                      -87.337,
                      -47.179
                    ],
                    [
                      -78.373,
                      -47.008
                    ],
                    [
                      -62.134,
                      -39.917
                    ],
                    [
                      -58.491,
                      -40.952
                    ],
                    [
                      -38.671,
                      -59.955
                    ],
                    [
                      -37.501,
                      -63.552
                    ],
                    [
                      -43.99,
                      -80.103
                    ],
                    [
                      -37.361,
                      -95.284
                    ],
                    [
                      -28.397,
                      -95.113
                    ],
                    [
                      -22.179,
                      -88.655
                    ],
                    [
                      -15.677,
                      -72.071
                    ],
                    [
                      -12.382,
                      -70.226
                    ],
                    [
                      15.015,
                      -69.691
                    ],
                    [
                      18.398,
                      -71.407
                    ],
                    [
                      25.429,
                      -87.508
                    ],
                    [
                      40.764,
                      -93.879
                    ],
                    [
                      47.174,
                      -87.339
                    ],
                    [
                      47.004,
                      -78.375
                    ],
                    [
                      39.867,
                      -62.032
                    ],
                    [
                      40.907,
                      -58.385
                    ],
                    [
                      59.92,
                      -38.649
                    ],
                    [
                      63.513,
                      -37.485
                    ],
                    [
                      79.856,
                      -43.893
                    ],
                    [
                      95.216,
                      -37.531
                    ],
                    [
                      95.113,
                      -28.397
                    ],
                    [
                      88.655,
                      -22.18
                    ],
                    [
                      72.103,
                      -15.69
                    ],
                    [
                      70.26,
                      -12.387
                    ],
                    [
                      69.79,
                      15.065
                    ],
                    [
                      71.507,
                      18.441
                    ],
                    [
                      87.503,
                      25.427
                    ]
                  ],
                  "c": true
                }
              },
              "nm": "Path 1",
              "_render": true
            },
            {
              "ty": "st",
              "c": {
                "a": 0,
                "k": [
                  1,
                  0.8431372549019608,
                  0,
                  1
                ]
              },
              "o": {
                "a": 0,
                "k": 100
              },
              "w": {
                "a": 0,
                "k": 12
              },
              "lc": 1,
              "lj": 1,
              "ml": 10,
              "nm": "Stroke 1",
              "_render": true
            },
            {
              "ty": "tr",
              "p": {
                "a": 0,
                "k": [
                  411.375,
                  187.751
                ]
              },
              "a": {
                "a": 0,
                "k": [
                  0,
                  0
                ]
              },
              "s": {
                "a": 0,
                "k": [
                  100,
                  100
                ]
              },
              "r": {
                "a": 0,
                "k": 0
              },
              "o": {
                "a": 0,
                "k": 100
              },
              "sk": {
                "a": 0,
                "k": 0
              },
              "sa": {
                "a": 0,
                "k": 0
              },
              "nm": "Transform",
              "_render": true
            }
          ],
          "nm": "Group 2",
          "_render": true
        }
      ],
      "ip": 0,
      "op": 90,
      "st": 0,
      "completed": true
    },
    {
      "ind": 2,
      "ty": 4,
      "nm": "Layer 1",
      "sr": 1,
      "ks": {
        "o": {
          "a": 0,
          "k": 100
        },
        "r": {
          "a": 1,
          "k": [
            {
              "i": {
                "x": [
                  0.667
                ],
                "y": [
                  1
                ]
              },
              "o": {
                "x": [
                  0.333
                ],
                "y": [
                  0
                ]
              },
              "t": 0,
              "s": [
                0
              ]
            },
            {
              "t": 89,
              "s": [
                1080
              ]
            }
          ]
        },
        "p": {
          "a": 0,
          "k": [
            230.026,
            370.848,
            0
          ],
          "l": 2
        },
        "a": {
          "a": 0,
          "k": [
            230.026,
            370.848,
            0
          ],
          "l": 2
        },
        "s": {
          "a": 0,
          "k": [
            100,
            100,
            100
          ],
          "l": 2
        }
      },
      "ao": 0,
      "shapes": [
        {
          "ty": "gr",
          "it": [
            {
              "ind": 0,
              "ty": "sh",
              "ks": {
                "a": 0,
                "k": {
                  "i": [
                    [
                      46.857,
                      -27.811
                    ],
                    [
                      27.811,
                      46.857
                    ],
                    [
                      -46.857,
                      27.811
                    ],
                    [
                      -27.811,
                      -46.857
                    ]
                  ],
                  "o": [
                    [
                      48.492999999999995,
                      24.848999999999997
                    ],
                    [
                      -24.848999999999997,
                      48.492999999999995
                    ],
                    [
                      -48.492999999999995,
                      -24.848999999999997
                    ],
                    [
                      24.848999999999997,
                      -48.492999999999995
                    ]
                  ],
                  "v": [
                    [
                      47.675,
                      -1.481
                    ],
                    [
                      1.481,
                      47.675
                    ],
                    [
                      -47.675,
                      1.481
                    ],
                    [
                      -1.481,
                      -47.675
                    ]
                  ],
                  "c": true
                }
              },
              "nm": "Path 1",
              "_render": true
            },
            {
              "ty": "st",
              "c": {
                "a": 0,
                "k": [
                  0.7529411764705882,
                  0.7529411764705882,
                  0.7529411764705882,
                  1
                ]
              },
              "o": {
                "a": 0,
                "k": 100
              },
              "w": {
                "a": 0,
                "k": 12
              },
              "lc": 1,
              "lj": 1,
              "ml": 10,
              "nm": "Stroke 1",
              "_render": true
            },
            {
              "ty": "tr",
              "p": {
                "a": 0,
                "k": [
                  230.026,
                  370.848
                ]
              },
              "a": {
                "a": 0,
                "k": [
                  0,
                  0
                ]
              },
              "s": {
                "a": 0,
                "k": [
                  100,
                  100
                ]
              },
              "r": {
                "a": 0,
                "k": 0
              },
              "o": {
                "a": 0,
                "k": 100
              },
              "sk": {
                "a": 0,
                "k": 0
              },
              "sa": {
                "a": 0,
                "k": 0
              },
              "nm": "Transform",
              "_render": true
            }
          ],
          "nm": "Group 1",
          "_render": true
        },
        {
          "ty": "gr",
          "it": [
            {
              "ind": 0,
              "ty": "sh",
              "ks": {
                "a": 0,
                "k": {
                  "i": [
                    [
                      137.059,
                      -13.185
                    ],
                    [
                      136.042,
                      4.003
                    ],
                    [
                      126.591,
                      11.819
                    ],
                    [
                      98.511,
                      12.691
                    ],
                    [
                      94.99600000000001,
                      14.166
                    ],
                    [
                      88.083,
                      40.287000000000006
                    ],
                    [
                      80.89399999999999,
                      54.422
                    ],
                    [
                      99.551,
                      71.95
                    ],
                    [
                      106.196,
                      87.86800000000001
                    ],
                    [
                      93.286,
                      99.032
                    ],
                    [
                      81.15700000000001,
                      97.872
                    ],
                    [
                      60.763,
                      78.707
                    ],
                    [
                      57.247,
                      77.25999999999999
                    ],
                    [
                      34.275999999999996,
                      90.77
                    ],
                    [
                      18.724,
                      95.765
                    ],
                    [
                      19.516,
                      121.265
                    ],
                    [
                      12.959,
                      137.219
                    ],
                    [
                      -4.066,
                      135.989
                    ],
                    [
                      -11.819,
                      126.591
                    ],
                    [
                      -12.686,
                      98.659
                    ],
                    [
                      -14.158000000000001,
                      95.148
                    ],
                    [
                      -40.309,
                      88.172
                    ],
                    [
                      -54.451,
                      80.937
                    ],
                    [
                      -71.699,
                      99.291
                    ],
                    [
                      -87.617,
                      106.241
                    ],
                    [
                      -99.024,
                      93.36099999999999
                    ],
                    [
                      -97.86500000000001,
                      81.156
                    ],
                    [
                      -78.667,
                      60.728
                    ],
                    [
                      -77.22,
                      57.222
                    ],
                    [
                      -90.64500000000001,
                      34.260000000000005
                    ],
                    [
                      -95.614,
                      18.719
                    ],
                    [
                      -120.91,
                      19.505
                    ],
                    [
                      -137.1,
                      13.142
                    ],
                    [
                      -136.026,
                      -4.013
                    ],
                    [
                      -126.58399999999999,
                      -11.819
                    ],
                    [
                      -98.438,
                      -12.693
                    ],
                    [
                      -94.932,
                      -14.161
                    ],
                    [
                      -87.949,
                      -40.175999999999995
                    ],
                    [
                      -80.73899999999999,
                      -54.271
                    ],
                    [
                      -99.544,
                      -71.943
                    ],
                    [
                      -106.189,
                      -87.86200000000001
                    ],
                    [
                      -93.279,
                      -99.026
                    ],
                    [
                      -81.15,
                      -97.86500000000001
                    ],
                    [
                      -60.535,
                      -78.493
                    ],
                    [
                      -57.029,
                      -77.046
                    ],
                    [
                      -34.181,
                      -90.415
                    ],
                    [
                      -18.712,
                      -95.39
                    ],
                    [
                      -19.505,
                      -120.91
                    ],
                    [
                      -13.186,
                      -137.059
                    ],
                    [
                      4.003,
                      -136.042
                    ],
                    [
                      11.819,
                      -126.591
                    ],
                    [
                      12.698,
                      -98.285
                    ],
                    [
                      14.170000000000002,
                      -94.774
                    ],
                    [
                      40.158,
                      -87.862
                    ],
                    [
                      54.241,
                      -80.701
                    ],
                    [
                      71.706,
                      -99.285
                    ],
                    [
                      87.624,
                      -106.235
                    ],
                    [
                      99.031,
                      -93.35499999999999
                    ],
                    [
                      97.872,
                      -81.15
                    ],
                    [
                      78.531,
                      -60.569
                    ],
                    [
                      77.08399999999999,
                      -57.055
                    ],
                    [
                      90.54,
                      -34.192
                    ],
                    [
                      95.547,
                      -18.718
                    ],
                    [
                      120.91,
                      -19.505
                    ]
                  ],
                  "o": [
                    [
                      137.69400000000002,
                      -0.0940000000000003
                    ],
                    [
                      130.469,
                      9.94
                    ],
                    [
                      122.243,
                      11.954
                    ],
                    [
                      96.591,
                      12.751000000000001
                    ],
                    [
                      92.596,
                      28.569
                    ],
                    [
                      80.622,
                      52.319
                    ],
                    [
                      82.285,
                      55.729
                    ],
                    [
                      105.886,
                      77.904
                    ],
                    [
                      97.265,
                      97.37100000000001
                    ],
                    [
                      85.232,
                      99.282
                    ],
                    [
                      77.989,
                      94.895
                    ],
                    [
                      59.369,
                      77.39699999999999
                    ],
                    [
                      45.702,
                      85.5
                    ],
                    [
                      20.035,
                      94.086
                    ],
                    [
                      18.784,
                      97.682
                    ],
                    [
                      19.785999999999998,
                      129.961
                    ],
                    [
                      -0.07100000000000062,
                      137.624
                    ],
                    [
                      -9.933,
                      130.469
                    ],
                    [
                      -11.954,
                      122.243
                    ],
                    [
                      -12.746,
                      96.742
                    ],
                    [
                      -28.578000000000003,
                      92.722
                    ],
                    [
                      -52.342999999999996,
                      80.669
                    ],
                    [
                      -55.761,
                      82.331
                    ],
                    [
                      -77.628,
                      105.6
                    ],
                    [
                      -97.301,
                      97.415
                    ],
                    [
                      -99.276,
                      85.231
                    ],
                    [
                      -94.888,
                      77.988
                    ],
                    [
                      -77.36,
                      59.337
                    ],
                    [
                      -85.414,
                      45.675
                    ],
                    [
                      -93.93400000000001,
                      20.034000000000002
                    ],
                    [
                      -97.534,
                      18.779
                    ],
                    [
                      -129.578,
                      19.773999999999997
                    ],
                    [
                      -137.676,
                      0.04899999999999949
                    ],
                    [
                      -130.469,
                      -9.934000000000001
                    ],
                    [
                      -122.243,
                      -11.954
                    ],
                    [
                      -96.524,
                      -12.751999999999999
                    ],
                    [
                      -92.487,
                      -28.508
                    ],
                    [
                      -80.47,
                      -52.160999999999994
                    ],
                    [
                      -82.133,
                      -55.581
                    ],
                    [
                      -105.88,
                      -77.90299999999999
                    ],
                    [
                      -97.258,
                      -97.36500000000001
                    ],
                    [
                      -85.225,
                      -99.276
                    ],
                    [
                      -77.982,
                      -94.888
                    ],
                    [
                      -59.144,
                      -77.18599999999999
                    ],
                    [
                      -45.534,
                      -85.20100000000001
                    ],
                    [
                      -20.023,
                      -93.712
                    ],
                    [
                      -18.772,
                      -97.308
                    ],
                    [
                      -19.773,
                      -129.551
                    ],
                    [
                      -0.0940000000000003,
                      -137.69400000000002
                    ],
                    [
                      9.934000000000001,
                      -130.463
                    ],
                    [
                      11.954,
                      -122.243
                    ],
                    [
                      12.758000000000001,
                      -96.36699999999999
                    ],
                    [
                      28.505000000000003,
                      -92.36200000000001
                    ],
                    [
                      52.137,
                      -80.42999999999999
                    ],
                    [
                      55.549,
                      -82.092
                    ],
                    [
                      77.635,
                      -105.594
                    ],
                    [
                      97.30799999999999,
                      -97.409
                    ],
                    [
                      99.283,
                      -85.225
                    ],
                    [
                      94.895,
                      -77.982
                    ],
                    [
                      77.221,
                      -59.175000000000004
                    ],
                    [
                      85.28699999999999,
                      -45.556999999999995
                    ],
                    [
                      93.87,
                      -20.024
                    ],
                    [
                      97.461,
                      -18.777
                    ],
                    [
                      129.551,
                      -19.773
                    ]
                  ],
                  "v": [
                    [
                      137.478,
                      -4.551
                    ],
                    [
                      133.226,
                      7
                    ],
                    [
                      122.243,
                      11.954
                    ],
                    [
                      98.511,
                      12.691
                    ],
                    [
                      94.68,
                      16.061
                    ],
                    [
                      81.628,
                      50.697
                    ],
                    [
                      82.285,
                      55.729
                    ],
                    [
                      99.551,
                      71.95
                    ],
                    [
                      100.242,
                      94.203
                    ],
                    [
                      89.259,
                      99.157
                    ],
                    [
                      77.989,
                      94.895
                    ],
                    [
                      60.763,
                      78.707
                    ],
                    [
                      55.69,
                      78.371
                    ],
                    [
                      21.903,
                      93.651
                    ],
                    [
                      18.784,
                      97.682
                    ],
                    [
                      19.516,
                      121.265
                    ],
                    [
                      4.27,
                      137.489
                    ],
                    [
                      -7,
                      133.226
                    ],
                    [
                      -11.954,
                      122.243
                    ],
                    [
                      -12.686,
                      98.659
                    ],
                    [
                      -16.05,
                      94.83
                    ],
                    [
                      -50.72,
                      81.681
                    ],
                    [
                      -55.761,
                      82.331
                    ],
                    [
                      -71.699,
                      99.291
                    ],
                    [
                      -94.016,
                      100.409
                    ],
                    [
                      -99.151,
                      89.258
                    ],
                    [
                      -94.888,
                      77.988
                    ],
                    [
                      -78.667,
                      60.728
                    ],
                    [
                      -78.325,
                      55.665
                    ],
                    [
                      -93.501,
                      21.905
                    ],
                    [
                      -97.534,
                      18.779
                    ],
                    [
                      -120.91,
                      19.505
                    ],
                    [
                      -137.481,
                      4.478
                    ],
                    [
                      -133.226,
                      -7
                    ],
                    [
                      -122.243,
                      -11.954
                    ],
                    [
                      -98.438,
                      -12.693
                    ],
                    [
                      -94.61,
                      -16.049
                    ],
                    [
                      -81.483,
                      -50.538
                    ],
                    [
                      -82.133,
                      -55.581
                    ],
                    [
                      -99.544,
                      -71.943
                    ],
                    [
                      -100.235,
                      -94.197
                    ],
                    [
                      -89.252,
                      -99.151
                    ],
                    [
                      -77.982,
                      -94.888
                    ],
                    [
                      -60.535,
                      -78.493
                    ],
                    [
                      -55.472,
                      -78.15
                    ],
                    [
                      -21.892,
                      -93.277
                    ],
                    [
                      -18.772,
                      -97.308
                    ],
                    [
                      -19.505,
                      -120.91
                    ],
                    [
                      -4.551,
                      -137.478
                    ],
                    [
                      7,
                      -133.226
                    ],
                    [
                      11.954,
                      -122.243
                    ],
                    [
                      12.698,
                      -98.285
                    ],
                    [
                      16.062,
                      -94.456
                    ],
                    [
                      50.515,
                      -81.437
                    ],
                    [
                      55.549,
                      -82.092
                    ],
                    [
                      71.706,
                      -99.285
                    ],
                    [
                      94.023,
                      -100.403
                    ],
                    [
                      99.158,
                      -89.252
                    ],
                    [
                      94.895,
                      -77.982
                    ],
                    [
                      78.531,
                      -60.569
                    ],
                    [
                      78.195,
                      -55.498
                    ],
                    [
                      93.432,
                      -21.889
                    ],
                    [
                      97.461,
                      -18.777
                    ],
                    [
                      120.91,
                      -19.505
                    ]
                  ],
                  "c": true
                }
              },
              "nm": "Path 1",
              "_render": true
            },
            {
              "ty": "st",
              "c": {
                "a": 0,
                "k": [
                  0.7529411764705882,
                  0.7529411764705882,
                  0.7529411764705882,
                  1
                ]
              },
              "o": {
                "a": 0,
                "k": 100
              },
              "w": {
                "a": 0,
                "k": 12
              },
              "lc": 1,
              "lj": 1,
              "ml": 10,
              "nm": "Stroke 1",
              "_render": true
            },
            {
              "ty": "tr",
              "p": {
                "a": 0,
                "k": [
                  230.026,
                  370.848
                ]
              },
              "a": {
                "a": 0,
                "k": [
                  0,
                  0
                ]
              },
              "s": {
                "a": 0,
                "k": [
                  100,
                  100
                ]
              },
              "r": {
                "a": 0,
                "k": 0
              },
              "o": {
                "a": 0,
                "k": 100
              },
              "sk": {
                "a": 0,
                "k": 0
              },
              "sa": {
                "a": 0,
                "k": 0
              },
              "nm": "Transform",
              "_render": true
            }
          ],
          "nm": "Group 2",
          "_render": true
        }
      ],
      "ip": 0,
      "op": 90,
      "st": 0,
      "completed": true
    }
  ],
  "markers": [],
  "__complete": true
}